Language model created by QuickLM on Tue Apr 27 04:58:04 EDT 2010
Copyright (c) 1996-2010 Carnegie Mellon University and Alexander I. Rudnicky

The model is in standard ARPA format, designed by Doug Paul while he was at MITRE.

The code that was used to produce this language model is available in Open Source.
Please visit http://www.speech.cs.cmu.edu/tools/ for more information

The (fixed) discount mass is 0.5. The backoffs are computed using the ratio method.
This model based on a corpus of 9 sentences and 12 words

\data\
ngram 1=12
ngram 2=20
ngram 3=17

\1-grams:
-0.9031 </s> -0.3010
-0.9031 <s> -0.2218
-1.8573 BAMA -0.2888
-1.8573 BESATI -0.2430
-1.8573 BOBUJA -0.2430
-1.5563 BUSE -0.2499
-0.9542 FOSIT -0.1996
-1.8573 JIMEJA -0.2430
-1.8573 KIPUPI -0.2430
-1.8573 KOLOKE -0.2430
-1.8573 NOLE -0.2430
-1.8573 WEBUFO -0.2430

\2-grams:
-1.2553 <s> BAMA 0.0000
-1.2553 <s> BOBUJA 0.0000
-1.2553 <s> BUSE 0.0000
-0.4771 <s> FOSIT -0.0969
-0.3010 BAMA BUSE 0.0000
-0.3010 BESATI </s> -0.3010
-0.3010 BOBUJA </s> -0.3010
-0.3010 BUSE FOSIT -0.2430
-0.9031 FOSIT </s> -0.3010
-1.2041 FOSIT BESATI 0.0000
-1.2041 FOSIT JIMEJA 0.0000
-1.2041 FOSIT KIPUPI 0.0000
-1.2041 FOSIT KOLOKE 0.0000
-1.2041 FOSIT NOLE 0.0000
-1.2041 FOSIT WEBUFO 0.0000
-0.3010 JIMEJA </s> -0.3010
-0.3010 KIPUPI </s> -0.3010
-0.3010 KOLOKE </s> -0.3010
-0.3010 NOLE </s> -0.3010
-0.3010 WEBUFO </s> -0.3010

\3-grams:
-0.3010 <s> BAMA BUSE
-0.3010 <s> BOBUJA </s>
-0.3010 <s> BUSE FOSIT
-1.0792 <s> FOSIT BESATI
-1.0792 <s> FOSIT JIMEJA
-1.0792 <s> FOSIT KIPUPI
-1.0792 <s> FOSIT KOLOKE
-1.0792 <s> FOSIT NOLE
-1.0792 <s> FOSIT WEBUFO
-0.3010 BAMA BUSE FOSIT
-0.3010 BUSE FOSIT </s>
-0.3010 FOSIT BESATI </s>
-0.3010 FOSIT JIMEJA </s>
-0.3010 FOSIT KIPUPI </s>
-0.3010 FOSIT KOLOKE </s>
-0.3010 FOSIT NOLE </s>
-0.3010 FOSIT WEBUFO </s>

\end\
